tree
version=v4
num_class=1
num_tree_per_iteration=1
label_index=0
max_feature_idx=70
objective=binary sigmoid:1
feature_names=Column_0 Column_1 Column_2 Column_3 Column_4 Column_5 Column_6 Column_7 Column_8 Column_9 Column_10 Column_11 Column_12 Column_13 Column_14 Column_15 Column_16 Column_17 Column_18 Column_19 Column_20 Column_21 Column_22 Column_23 Column_24 Column_25 Column_26 Column_27 Column_28 Column_29 Column_30 Column_31 Column_32 Column_33 Column_34 Column_35 Column_36 Column_37 Column_38 Column_39 Column_40 Column_41 Column_42 Column_43 Column_44 Column_45 Column_46 Column_47 Column_48 Column_49 Column_50 Column_51 Column_52 Column_53 Column_54 Column_55 Column_56 Column_57 Column_58 Column_59 Column_60 Column_61 Column_62 Column_63 Column_64 Column_65 Column_66 Column_67 Column_68 Column_69 Column_70
feature_infos=[-0.0018186530666115617:0.0017425164531951864] [-0.0030533255336524243:0.0029988798660581933] [-0.0043028420963395252:0.0042916342685715468] [-0.0061192209316600276:0.0058879677098999765] [-0.011212879611809312:0.0099613743918377778] [0:0.0020417562747117425] [1.5854525367504592e-10:0.0019520037279356778] [0:2.4852502868478679] [-0.0037585219867921817:0.0036812529155883611] [-0.0068154172078691028:0.0063045585379353846] [-0.0040908407439459249:0.0036595238995064854] [0.012821170832670519:0.99999999889746405] [0.00026794816383604071:0.011620253645372046] [0.002488421709941715:0.062457451934973637] [-0.013195631813509424:0.011510410491318936] [-13.881531319719265:15.514842219810875] [14.91602060522685:79.942679128020956] [-21.554702692600635:21.540347485184714] [-0.00059241980165150262:0.00058667790784693453] [-0.16986177672518946:1.1798718492248919] [0.00011924097857316097:0.0017759609039008459] [0.00028530423153344775:0.0022037601842512535] [0.26545448070882793:2.0886793501424323] [-2.1973202275809403:2.8373081855583404] [-2.1197404920419864:4.4946104797124269] [-1.6509671082051851:2.6648539343370876] [-2.4990875638274099:2.3987903100165897] [-2.7570562747431464:2.1189012476226496] [-0.017762875293068268:0.018741999814926164] [-0.96592582628906842:1] [-1:1] [-0.78183148246802991:0.97492791218182362] [-0.90096886790241903:1] [-0.0020800541384676774:0.0019868802031002861] [-0.0020800541384676774:0.0019868802031002861] [-0.0020800541384676774:0.0019868802031002861] [-0.0020800541384676774:0.0019868802031002861] [-0.0020800541384676774:0.0019868802031002861] [-0.0020800541384676774:0.0019868802031002861] [0:117413.57613266871] [-538167.97307076992:675142.87048211345] [-inf:inf] [-inf:inf] [-11.255997640701636:11.838054244055575] [-16.712846386920916:18.031190154086602] [-3.0310363419213573:3.0901015530529405] [-3.0682099916527865:3.0804584208756691] [-2.9954387045437731:3.2478175067241697] [-0.013276977602775578:0.0157020994744098] [0:0.0030352668636673989] [-13.565523764179764:15.745528032179012] [0:77.905192563056886] [-19.192059788741251:17.737931869909531] [-42.678770613416098:73.739979855070999] [-0.0022874394696059098:0.0024259983818463739] [-0.00072426792133885862:0.00071740303766153744] [-0.15472658477074486:1.1404560002557851] [-0.0028119529538299598:0.0025320467088715886] [0.00015123492338378099:0.002914768688238202] [0.2899670453877537:2.2804340679894919] [-1.13721948124869:3.5591265294442294] [-0.0018703879902221842:0.0018766312781632677] [-0.0018729825458657953:0.0019524891407749199] [-0.0063636046971002622:0.0063879954822409551] [-0.0055487449782073298:0.0048956808778145688] [-0.0038352469440727172:0.0039339468067340006] [-0.0041032436755764163:0.0037652904204168247] [-0.012036397058201991:0.012868961598433769] [-0.010549560460472316:0.009854772085107039] [-0.0060442936895031881:0.0065155230448876418] [-0.013588292367070886:0.012580066845041015]
tree_sizes=887 904 905 895 908 889 903 890 904 895 900 895 692 895 891 693 904 894 904 695 888 899 897 793 888 903 904 685 902 800 903 904 897 894 895 887 789 787 796 904

Tree=0
num_leaves=7
num_cat=0
split_feature=6 13 66 28 40 38
split_gain=14.3671 21.3204 17.0299 13.6712 13.7972 11.1737
threshold=0.00070205105614954788 0.012786236906876665 0.0005732901685644461 -3.3880317722917008e-05 12485.776703801155 -1.3095398968543391e-05
decision_type=2 2 2 2 2 2
left_child=3 -2 -3 4 -1 -5
right_child=1 2 -4 5 -6 -7
leaf_value=0.093668102944607756 0.10852135835209235 0.070738389909303395 0.11458279713970555 0.073392565378424937 0.05166924282689267 0.086348032686109688
leaf_weight=258.5291839838028 17.468188107013702 132.25913852453232 8.4845485091209394 76.860027670860291 7.2368207871913901 271.75509783625603
leaf_count=1036 70 530 34 308 29 1089
internal_value=0.085323 0.0772613 0.0733815 0.0873991 0.0925245 0.0834917
internal_weight=772.593 158.212 140.744 614.381 265.766 348.615
internal_count=3096 634 564 2462 1065 1397
is_linear=0
shrinkage=1


Tree=1
num_leaves=7
num_cat=0
split_feature=6 13 66 28 40 36
split_gain=13.5149 20.0652 16.0275 12.8678 12.9738 10.872
threshold=0.00070205105614954788 0.012786236906876665 0.0005732901685644461 -3.3880317722917008e-05 12485.776703801155 -2.6514899042484603e-06
decision_type=2 2 2 2 2 2
left_child=3 -2 -3 4 -1 -5
right_child=1 2 -4 5 -6 -7
leaf_value=0.0080977751202434261 0.022528033995932839 -0.01413894066725924 0.028424070931329763 -0.01161427264400376 -0.032605967149896775 0.0010765352636104518
leaf_weight=258.43272984027863 17.448577135801315 132.33438700437546 8.4721611738204938 78.371153116226196 7.2451631277799597 270.26840588450432
leaf_count=1036 70 530 34 314 29 1083
internal_value=6.66757e-08 -0.00781758 -0.011578 0.00201398 0.00698776 -0.00177625
internal_weight=772.573 158.255 140.807 614.317 265.678 348.64
internal_count=3096 634 564 2462 1065 1397
is_linear=0
shrinkage=0.03


Tree=2
num_leaves=7
num_cat=0
split_feature=6 13 66 28 40 38
split_gain=12.7148 18.8874 15.0876 12.112 12.2042 10.3351
threshold=0.00070205105614954788 0.012786236906876665 0.0005732901685644461 -3.3880317722917008e-05 12485.776703801155 -1.3095398968543391e-05
decision_type=2 2 2 2 2 2
left_child=3 -2 -3 4 -1 -5
right_child=1 2 -4 5 -6 -7
leaf_value=0.0078579969611999121 0.021882103348292492 -0.013708503454499869 0.027622544323728328 -0.011431933360257459 -0.031609236786754022 0.0010248935326751152
leaf_weight=258.33057922124863 17.425078600645065 132.39394292235374 8.4566894173622114 76.907801777124405 7.2493414282798758 271.75355033576488
leaf_count=1036 70 530 34 308 29 1089
internal_value=1.27082e-07 -0.0075819 -0.011227 0.00195384 0.00678069 -0.00172284
internal_weight=772.517 158.276 140.851 614.241 265.58 348.661
internal_count=3096 634 564 2462 1065 1397
is_linear=0
shrinkage=0.03


Tree=3
num_leaves=7
num_cat=0
split_feature=6 13 66 57 42 25
split_gain=11.9634 17.7815 14.2058 11.5653 10.952 10.2432
threshold=0.00070205105614954788 0.012786236906876665 0.0005732901685644461 0.00068456226760051206 -16.058099958258882 0.10851859952484195
decision_type=2 2 2 2 2 2
left_child=3 -2 -3 4 -1 -5
right_child=1 2 -4 5 -6 -7
leaf_value=0.025171677740856588 0.021259079975731031 -0.013292642321757676 0.026852712738387914 -0.018465122746227244 0.00277478073501395 0.0013036192471022447
leaf_weight=20.455955818295479 17.398075312376022 132.43907779455185 8.4384306371211988 43.415673300623894 498.62218095362186 51.656530886888504
leaf_count=82 70 530 34 174 1999 207
internal_value=1.8021e-07 -0.00735428 -0.010888 0.00189553 0.0036574 -0.00772397
internal_weight=772.426 158.276 140.878 614.15 519.078 95.0722
internal_count=3096 634 564 2462 2081 381
is_linear=0
shrinkage=0.03


Tree=4
num_leaves=7
num_cat=0
split_feature=5 47 28 13 67 16
split_gain=11.4044 14.7934 12.5271 9.35177 12.1692 11.7619
threshold=0.0006059644580405229 -1.8091903430670844 -0.00018132333697712914 0.020624791459165407 0.0048203092052032156 47.013193718675161
decision_type=2 2 2 2 2 2
left_child=1 -1 -3 4 -2 -5
right_child=3 2 -4 5 -6 -7
leaf_value=-0.050125781834202222 -0.0031971300889485324 0.0085149131516603985 -0.0010287054926894652 0.00026686023581672482 0.033546470417862712 -0.024194693116709756
leaf_weight=4.7396718114614478 182.32706715166569 219.12216921150684 284.50358602404594 29.959063544869423 8.4899561256170255 43.201814830303192
leaf_count=19 731 879 1140 120 34 173
internal_value=2.34383e-07 0.00262716 0.00312362 -0.00505866 -0.00156231 -0.0141778
internal_weight=772.343 508.365 503.626 263.978 190.817 73.1609
internal_count=3096 2038 2019 1058 765 293
is_linear=0
shrinkage=0.03


Tree=5
num_leaves=7
num_cat=0
split_feature=23 40 5 45 23 50
split_gain=11.243 16.7634 14.3205 13.4069 12.3654 7.96986
threshold=-0.8850281599838844 9478.1115236553978 0.0010090930978803819 2.2560825228305403 -1.0294744624823755 15.442981959591927
decision_type=2 2 2 2 2 2
left_child=1 4 5 -4 -1 -2
right_child=2 -3 3 -5 -6 -7
leaf_value=0.0043573207800016497 -0.0009589299250285921 -0.044745071364089145 -0.023760751501811193 0.028327757324594329 0.024730714891726745 0.035381111687211024
leaf_weight=131.45167036354542 550.48352287709713 5.4961274564266196 40.708308607339859 4.9926338940858832 33.681727677583694 5.4856594651937476
leaf_count=527 2207 22 163 20 135 22
internal_value=2.71148e-07 0.00679733 -0.00192733 -0.0180703 0.00851282 -0.000600369
internal_weight=772.3 170.63 601.67 45.7009 165.133 555.969
internal_count=3096 684 2412 183 662 2229
is_linear=0
shrinkage=0.03


Tree=6
num_leaves=7
num_cat=0
split_feature=6 13 21 26 57 60
split_gain=10.7033 16.5581 14.2006 11.1295 13.7013 8.64305
threshold=0.00070205105614954788 0.012786236906876665 0.00083199587636830126 -1.3052255715455539 0.00068456226760051206 -0.2855958518545571
decision_type=2 2 2 2 2 2
left_child=3 -2 -3 5 -5 -1
right_child=1 2 -4 4 -6 -7
leaf_value=-0.0088905197462132175 0.020681102329515502 -0.015156145872673067 0.0085643804183093645 0.0024258468731671139 -0.010917004406276585 0.019876330075998878
leaf_weight=11.726460129022596 17.36870476603508 112.42261211574078 28.465794444084167 473.77288298308849 81.124009028077126 47.378783822059631
leaf_count=47 70 450 114 1900 325 190
internal_value=3.02577e-07 -0.00695639 -0.0103635 0.00179337 0.000475168 0.014169
internal_weight=772.259 158.257 140.888 614.002 554.897 59.1052
internal_count=3096 634 564 2462 2225 237
is_linear=0
shrinkage=0.03


Tree=7
num_leaves=7
num_cat=0
split_feature=23 40 5 45 23 50
split_gain=10.4955 15.7349 13.2787 12.657 11.7267 7.4621
threshold=-0.8850281599838844 9478.1115236553978 0.0010090930978803819 2.2560825228305403 -0.99337801577291029 15.442981959591927
decision_type=2 2 2 2 2 2
left_child=1 4 5 -4 -1 -2
right_child=2 -3 3 -5 -6 -7
leaf_value=0.0050825241584024575 -0.00093036208127813668 -0.043358220030862329 -0.022930521843316874 0.02769989689072919 0.02853158313136888 0.034274552394729478
leaf_weight=142.86348830163479 550.45675024390221 5.4977652281522742 40.719541922211647 4.9881162494420996 22.173141360282898 5.4725942462682715
leaf_count=573 2207 22 163 20 89 22
internal_value=3.4349e-07 0.00656975 -0.00186176 -0.0174052 0.00823297 -0.000583803
internal_weight=772.171 170.534 601.637 45.7077 165.037 555.929
internal_count=3096 684 2412 183 662 2229
is_linear=0
shrinkage=0.03


Tree=8
num_leaves=7
num_cat=0
split_feature=5 47 28 42 13 66
split_gain=10.2177 13.865 11.822 8.33447 8.51717 7.09443
threshold=0.0006059644580405229 -1.8091903430670844 -0.00018132333697712914 -3.9947951320912702 0.020624791459165407 -0.00045353189766255412
decision_type=2 2 2 2 2 2
left_child=1 -1 -3 5 -5 -2
right_child=3 2 -4 4 -6 -7
leaf_value=-0.048542758755146805 -0.010871024417782673 0.0082086908466020517 -0.0010647343548838349 -0.0026202138289783878 -0.01496443435466413 0.032640656597905146
leaf_weight=4.7471146285533896 5.2361351102590552 218.96199332177639 284.45483508706093 179.29984003305435 69.922634392976761 9.4752733111381513
leaf_count=19 21 879 1140 719 280 38
internal_value=3.68906e-07 0.00248755 0.00296876 -0.00478832 -0.00608355 0.0171538
internal_weight=772.098 508.164 503.417 263.934 249.222 14.7114
internal_count=3096 2038 2019 1058 999 59
is_linear=0
shrinkage=0.03


Tree=9
num_leaves=7
num_cat=0
split_feature=23 40 5 45 23 45
split_gain=9.88915 14.8416 12.1641 11.8267 11.2012 7.12584
threshold=-0.8850281599838844 9478.1115236553978 0.0010090930978803819 2.2560825228305403 -1.0294744624823755 1.0390671554449245
decision_type=2 2 2 2 2 2
left_child=1 4 5 -4 -1 -2
right_child=2 -3 3 -5 -6 -7
leaf_value=0.0040411762631006581 0.0014761116335614845 -0.042126606498411427 -0.022023592121024421 0.026948960889254372 0.023452862707799914 -0.0061845710789201159
leaf_weight=131.35690054297447 406.40763631463051 5.494235858321189 40.716222450137138 4.9810778498649588 33.596112191677094 149.47314485907555
leaf_count=527 1630 22 163 20 135 599
internal_value=3.89923e-07 0.00637915 -0.00180693 -0.0166855 0.00799477 -0.000583802
internal_weight=772.025 170.447 601.578 45.6973 164.953 555.881
internal_count=3096 684 2412 183 662 2229
is_linear=0
shrinkage=0.03


Tree=10
num_leaves=7
num_cat=0
split_feature=40 23 5 28 23 57
split_gain=9.58456 11.6003 12.5868 10.9721 9.44468 6.76876
threshold=12485.776703801155 -0.87423120533328935 0.0009940650213631204 0.00023249393621962874 0.22643868758953897 -0.00010844579294000974
decision_type=2 2 2 2 2 2
left_child=1 3 -3 -1 -2 -6
right_child=4 2 -4 -5 5 -7
leaf_value=0.015259868927862184 -0.038231693847446055 -0.00014412729951809647 -0.016229408690036966 -6.9935492991236267e-05 -0.024165331892630804 0.030237211534369059
leaf_weight=82.861696869134903 11.481958419084551 536.41045312583447 47.673712536692619 85.253720343112946 3.9954804033041 4.2453881800174695
leaf_count=333 46 2151 191 342 16 17
internal_value=4.02488e-07 0.000541703 -0.00145703 0.00748591 -0.020644 0.00386083
internal_weight=771.922 752.2 584.084 168.115 19.7228 8.24087
internal_count=3096 3017 2342 675 79 33
is_linear=0
shrinkage=0.03


Tree=11
num_leaves=7
num_cat=0
split_feature=10 6 21 40 13 17
split_gain=9.312 11.9172 19.3597 12.3199 10.6191 10.3645
threshold=0.0009544091450586227 0.0006379230634800426 0.00083199587636830126 12485.776703801155 0.031195943028111437 11.451631068805886
decision_type=2 2 2 2 2 2
left_child=1 3 -3 -1 5 -2
right_child=4 2 -4 -5 -6 -7
leaf_value=0.0051933085521555736 -0.0058196686882348745 -0.0083846907815301967 0.026094476328268858 -0.023945325579574808 -0.038541682851502647 0.043143455406048956
leaf_weight=426.82867138087749 149.96614781022072 152.60567332804203 16.213540449738503 13.471194788813589 8.7407681643962842 3.994565322995185
leaf_count=1713 601 612 65 54 35 16
internal_value=4.0871e-07 0.00170347 -0.00507328 0.0043018 -0.00637547 -0.0045493
internal_weight=771.821 609.119 168.819 440.3 162.701 153.961
internal_count=3096 2444 677 1767 652 617
is_linear=0
shrinkage=0.03


Tree=12
num_leaves=5
num_cat=0
split_feature=50 47 13 19
split_gain=9.01687 9.73052 14.1497 8.97286
threshold=15.442981959591927 0.029385986537077437 0.020624791459165407 0.84912856846942852
decision_type=2 2 2 2
left_child=1 2 -1 -3
right_child=-2 3 -4 -5
leaf_value=-0.00093876093412890505 0.034016366994107497 0.005820074235641336 -0.015990937289591296 -0.0084650931116982391
leaf_weight=382.87193571031094 6.9503094106912604 269.65207022428513 65.878542169928551 46.379937708377838
leaf_count=1536 28 1082 264 186
internal_value=4.19832e-07 -0.000308716 -0.00314849 0.00372362
internal_weight=771.733 764.782 448.75 316.032
internal_count=3096 3068 1800 1268
is_linear=0
shrinkage=0.03


Tree=13
num_leaves=7
num_cat=0
split_feature=23 40 23 5 45 11
split_gain=8.82034 13.0484 10.6167 10.1832 11.0318 6.98389
threshold=-0.8850281599838844 9478.1115236553978 -1.0294744624823755 0.0010090930978803819 2.2560825228305403 0.71487855216052243
decision_type=2 2 2 2 2 2
left_child=1 2 -1 5 -5 -2
right_child=3 -3 -4 4 -6 -7
leaf_value=0.0036935796082440569 -0.0026142312288871569 -0.039567457440379684 0.022610768330341285 -0.020489298856940077 0.026821267118339365 0.004992307440094699
leaf_weight=131.25338730216026 407.68371596932411 5.4671862572431555 33.51908703148365 40.662134543061256 4.9789646118879309 148.09680485725403
leaf_count=527 1635 22 135 163 20 594
internal_value=4.31898e-07 0.00602894 0.00754184 -0.00170601 -0.0153282 -0.000587345
internal_weight=771.661 170.24 164.772 601.422 45.6411 555.781
internal_count=3096 684 662 2412 183 2229
is_linear=0
shrinkage=0.03


Tree=14
num_leaves=7
num_cat=0
split_feature=10 21 28 24 13 17
split_gain=8.64166 11.2568 22.4427 12.3782 9.63052 9.76246
threshold=0.0009544091450586227 0.00083199587636830126 -0.012789376946560556 0.8564809216642103 0.031195943028111437 11.451631068805886
decision_type=2 2 2 2 2 2
left_child=1 2 -1 -3 5 -2
right_child=4 3 -4 -5 -6 -7
leaf_value=-0.044343212671335182 -0.0056367906743236672 0.040086402145197764 0.001627412389761032 -0.0078988101103276663 -0.036812318167377067 0.0419283334775261
leaf_weight=9.7184695899486524 149.953643232584 13.69283375144005 577.9719427973032 7.4818053543567649 8.7203633040189725 3.9867599159479132
leaf_count=39 601 55 2320 30 35 16
internal_value=4.32559e-07 0.0016415 0.000867209 0.0231314 -0.00614233 -0.00440495
internal_weight=771.526 608.865 587.69 21.1746 162.661 153.94
internal_count=3096 2444 2359 85 652 617
is_linear=0
shrinkage=0.03


Tree=15
num_leaves=5
num_cat=0
split_feature=50 47 13 19
split_gain=8.40694 8.99798 12.7042 8.4376
threshold=15.442981959591927 0.029385986537077437 0.020624791459165407 0.84912856846942852
decision_type=2 2 2 2
left_child=1 2 -1 -3
right_child=-2 3 -4 -5
leaf_value=-0.00093560192022927059 0.032908548983478308 0.0056148028121452307 -0.015205139395841597 -0.0082370311606788146
leaf_weight=382.79602819681168 6.9240267872810355 269.52231955528259 65.805561944842339 46.389326050877571
leaf_count=1536 28 1082 264 186
internal_value=4.36311e-07 -0.000297605 -0.00302881 0.00358076
internal_weight=771.437 764.513 448.602 315.912
internal_count=3096 3068 1800 1268
is_linear=0
shrinkage=0.03


Tree=16
num_leaves=7
num_cat=0
split_feature=23 40 23 6 68 45
split_gain=8.30299 12.2508 10.0892 9.13855 14.4127 11.5322
threshold=-0.8850281599838844 9478.1115236553978 -0.99337801577291029 0.00060929978081498005 -0.00082609351182722239 -0.73647799197689845
decision_type=2 2 2 2 2 2
left_child=1 2 -1 5 -5 -2
right_child=3 -3 -4 4 -6 -7
leaf_value=0.0043979987339049431 0.0081276325961559988 -0.038412645266862507 0.026212516951647512 -0.01881044658280533 -0.0015869886030184174 -0.0026908825658600605
leaf_weight=142.63175071775913 135.43634511530399 5.446985960006713 22.028269663453102 62.306890174746513 146.63218954205513 256.86239928007126
leaf_count=573 544 22 89 250 588 1030
internal_value=4.45676e-07 0.00585207 0.00731635 -0.00165514 -0.00672313 0.00104408
internal_weight=771.345 170.107 164.66 601.238 208.939 392.299
internal_count=3096 684 662 2412 838 1574
is_linear=0
shrinkage=0.03


Tree=17
num_leaves=7
num_cat=0
split_feature=10 21 28 24 22 25
split_gain=7.98134 10.9574 20.614 11.5702 9.13264 9.37365
threshold=0.0009544091450586227 0.00083199587636830126 -0.012789376946560556 0.8564809216642103 0.61247559263191886 -1.3523735046016812
decision_type=2 2 2 2 2 2
left_child=1 2 -1 -3 5 -2
right_child=4 3 -4 -5 -6 -7
leaf_value=-0.042566634431909514 0.011472905368441486 0.039217023055107263 0.001542488532798144 -0.0072062495252993306 -0.0030590956725858958 -0.034369561609364434
leaf_weight=9.6956047564744932 5.2361602336168316 13.662498623132707 577.7469344586134 7.4756826162338248 140.17828877270222 17.203796148300171
leaf_count=39 21 55 2320 30 562 69
internal_value=4.64069e-07 0.00157808 0.000814478 0.0227991 -0.00590359 -0.0236726
internal_weight=771.199 608.581 587.443 21.1382 162.618 22.44
internal_count=3096 2444 2359 85 652 90
is_linear=0
shrinkage=0.03


Tree=18
num_leaves=7
num_cat=0
split_feature=40 23 28 5 36 61
split_gain=7.93841 9.6475 10.1753 9.47434 8.83958 5.5255
threshold=12485.776703801155 -0.87423120533328935 0.00072737362890410383 0.0009940650213631204 2.5088609421075607e-06 -0.00019186190756517515
decision_type=2 2 2 2 2 2
left_child=1 2 -1 -3 5 -2
right_child=4 3 -4 -5 -6 -7
leaf_value=0.013570924156792398 -0.0049974475006377434 -0.00019206570964184561 -0.0012674634289675834 -0.01417109276310507 0.0075998127105726832 -0.04785285401661081
leaf_weight=91.592511266469955 3.9820991605520257 536.15744744241238 76.192137449979782 47.501163393259048 7.2148605436086646 8.4608666300773621
leaf_count=369 16 2151 306 191 29 34
internal_value=4.64354e-07 0.00049279 0.00683271 -0.00132975 -0.0188192 -0.0341379
internal_weight=771.101 751.443 167.785 583.659 19.6578 12.443
internal_count=3096 3017 675 2342 79 50
is_linear=0
shrinkage=0.03


Tree=19
num_leaves=5
num_cat=0
split_feature=50 47 63 19
split_gain=7.79906 8.21847 11.4708 7.88699
threshold=15.442981959591927 0.029385986537077437 -0.0004147942872823926 0.84912856846942852
decision_type=2 2 2 2
left_child=1 2 -1 -3
right_child=-2 3 -4 -5
leaf_value=0.0072162008262615885 0.031775993471062851 0.0053894643783535708 -0.0051738443506800704 -0.0080031051033158419
leaf_weight=82.389823749661446 6.8897023051977149 269.33525866270065 365.95803362131119 46.392197117209435
leaf_count=331 28 1082 1469 186
internal_value=4.53844e-07 -0.000286068 -0.00289701 0.00342159
internal_weight=770.965 764.075 448.348 315.727
internal_count=3096 3068 1800 1268
is_linear=0
shrinkage=0.03


Tree=20
num_leaves=7
num_cat=0
split_feature=50 28 40 23 23 24
split_gain=7.51019 11.9958 8.54425 8.55099 8.52512 1.38924
threshold=13.257288836781214 0.0011275825018106833 12485.776703801155 -0.87423120533328935 0.22643868758953897 0.41518183742075104
decision_type=2 2 2 2 2 2
left_child=2 5 3 -1 -4 -2
right_child=1 -3 4 -5 -6 -7
leaf_value=0.0061303289232645594 0.054854524042049449 -0.012230672437897001 -0.037143194903785932 -0.0016258989434841721 0.0034566649695355637 0.03067994741510131
leaf_weight=164.71800273656845 4.6948970705270749 5.70604683458805 11.150882273912432 572.72077734768391 7.9899877309799185 3.9306270033121109
leaf_count=663 19 23 45 2298 32 16
internal_value=4.77008e-07 0.0215147 -0.000407057 0.000106571 -0.0201956 0.0438382
internal_weight=770.911 14.3316 756.58 737.439 19.1409 8.62552
internal_count=3096 58 3038 2961 77 35
is_linear=0
shrinkage=0.03


Tree=21
num_leaves=7
num_cat=0
split_feature=5 47 44 42 66 67
split_gain=7.39967 12.7048 10.5533 8.01936 6.76774 6.61371
threshold=0.0006059644580405229 -1.8091903430670844 11.502887316976885 -3.9947951320912702 -0.00045353189766255412 -0.0028624878458742425
decision_type=2 2 2 2 2 2
left_child=1 -1 -3 4 -2 -5
right_child=3 2 -4 5 -6 -7
leaf_value=-0.04675277978271565 -0.0099005056209134912 0.0036096634742615809 -0.015771818254387778 0.012622975651741655 0.032641535074579127 -0.0066805004021173384
leaf_weight=4.7426303923130027 5.2299320995807639 475.88611575961113 26.703406155109406 17.157292068004608 9.4405815601348859 231.64029118418694
leaf_count=19 21 1912 107 69 38 930
internal_value=4.87066e-07 0.00211872 0.00257989 -0.00407837 0.0174756 -0.00534932
internal_weight=770.8 507.332 502.59 263.468 14.6705 248.798
internal_count=3096 2038 2019 1058 59 999
is_linear=0
shrinkage=0.03


Tree=22
num_leaves=7
num_cat=0
split_feature=6 13 21 26 57 60
split_gain=7.28962 14.6304 13.9325 10.2619 11.0121 8.05081
threshold=0.00070205105614954788 0.012786236906876665 0.00083199587636830126 -1.3052255715455539 0.00068456226760051206 -0.2855958518545571
decision_type=2 2 2 2 2 2
left_child=3 -2 -3 5 -5 -1
right_child=1 2 -4 4 -6 -7
leaf_value=-0.0088914543525376102 0.020259140757026513 -0.013701690159602924 0.0098528448768939094 0.001966827024731515 -0.0099983929678475417 0.018908246556294122
leaf_weight=11.699618279933928 17.328776195645332 112.19510051608086 28.301999717950821 472.902612388134 81.097877666354179 47.2004704028368
leaf_count=47 70 450 114 1900 325 190
internal_value=4.92422e-07 -0.005749 -0.00895682 0.00148102 0.000215287 0.0133863
internal_weight=770.726 157.826 140.497 612.901 554 58.9001
internal_count=3096 634 564 2462 2225 237
is_linear=0
shrinkage=0.03


Tree=23
num_leaves=6
num_cat=0
split_feature=68 68 59 40 58
split_gain=7.16244 9.94829 8.21795 6.54373 5.97485
threshold=0.007942616224426791 0.0059330328798627976 0.45316903587037666 -1215.5300792058108 0.00088207683023296525
decision_type=2 2 2 2 2
left_child=1 2 -1 -3 -2
right_child=4 3 -4 -5 -6
leaf_value=-0.022683951875745699 -0.00072776363635662796 0.057347855043031574 0.00036533938923190198 0.0061009361679483527 -0.051250489586742665
leaf_weight=14.188960328698156 3.9816675931215268 4.4828798919916153 738.96486453711987 4.4871157705783826 4.4736271649599075
leaf_count=57 16 18 2969 18 18
internal_value=5.15374e-07 0.000305161 -6.88952e-05 0.0317123 -0.0274589
internal_weight=770.579 762.124 753.154 8.97 8.45529
internal_count=3096 3062 3026 36 34
is_linear=0
shrinkage=0.03


Tree=24
num_leaves=7
num_cat=0
split_feature=50 28 40 23 23 24
split_gain=7.03597 11.3608 7.96817 8.04737 8.0019 1.33047
threshold=13.257288836781214 0.0011275825018106833 12485.776703801155 0.22643868758953897 -0.87423120533328935 0.41518183742075104
decision_type=2 2 2 2 2 2
left_child=2 5 4 -4 -1 -2
right_child=1 -3 3 -5 -6 -7
leaf_value=0.0059320835653444938 0.053503108910607354 -0.011935840796526494 -0.036039158345213929 0.0034403996810955548 -0.0015736175496863462 0.029781205861921657
leaf_weight=164.58126939833164 4.6650603115558607 5.7084548920392981 11.109193786978723 7.988032490015029 572.57543951272964 3.9124952703714371
leaf_count=663 19 23 45 32 2298 16
internal_value=5.06089e-07 0.0208581 -0.000393504 -0.0195256 0.000102143 0.0426828
internal_weight=770.54 14.286 756.254 19.0972 737.157 8.57756
internal_count=3096 58 3038 77 2961 35
is_linear=0
shrinkage=0.03


Tree=25
num_leaves=7
num_cat=0
split_feature=5 47 28 42 17 66
split_gain=6.9105 11.9107 10.0337 7.54334 6.4199 6.37889
threshold=0.0006059644580405229 -1.8091903430670844 -0.00018132333697712914 -3.9947951320912702 -3.1175367610711322 -0.00045353189766255412
decision_type=2 2 2 2 2 2
left_child=1 -1 -3 5 -5 -2
right_child=3 2 -4 4 -6 -7
leaf_value=-0.045311587637644299 -0.0095945274950025774 0.0073318387194999642 -0.0012217243614036249 0.0015960305766018002 -0.0086060577746478444 0.031724762644391107
leaf_weight=4.7346446961164466 5.228942707180976 218.24560183286667 284.09125153720379 83.648419737815857 165.04143141210079 9.4214108586311323
leaf_count=19 21 879 1140 336 663 38
internal_value=5.16884e-07 0.00204809 0.00249446 -0.00394215 -0.00517452 0.0169773
internal_weight=770.412 507.071 502.337 263.34 248.69 14.6504
internal_count=3096 2038 2019 1058 999 59
is_linear=0
shrinkage=0.03


Tree=26
num_leaves=7
num_cat=0
split_feature=10 21 28 13 25 36
split_gain=6.72363 12.8739 19.1326 10.824 9.48924 8.8141
threshold=0.00079025900822908373 0.00083199587636830126 -0.012789376946560556 0.031195943028111437 0.99611994506782298 -0.00041487008566598588
decision_type=2 2 2 2 2 2
left_child=1 2 -1 5 -3 -2
right_child=3 4 -4 -5 -6 -7
leaf_value=-0.041094844989264474 -0.024356359605473273 0.037782737943499144 0.0015271078674431581 -0.036200890910381936 -0.0094097533506203642 -0.0012012236801437898
leaf_weight=9.64636382460594 16.207779988646507 14.612023070454599 545.44664326310158 9.4082717895507795 5.1990798711776725 169.78146387636662
leaf_count=39 65 59 2193 38 21 681
internal_value=5.24937e-07 0.00163453 0.000786427 -0.0048071 0.0253979 -0.00321905
internal_weight=770.302 574.904 555.093 195.398 19.8111 185.989
internal_count=3096 2312 2232 784 80 746
is_linear=0
shrinkage=0.03


Tree=27
num_leaves=5
num_cat=0
split_feature=50 59 35 46
split_gain=6.65031 7.14205 7.44512 7.39779
threshold=15.442981959591927 0.45316903587037666 -0.0018757311683171849 -1.056709340150537
decision_type=2 2 2 2
left_child=1 3 -3 -1
right_child=-2 2 -4 -5
leaf_value=0.013953845904607838 0.029543811140543198 0.031634431865112021 -0.00014051362369275195 -0.033974841889695379
leaf_weight=3.9753622710704795 6.7969827950000754 6.6964794546365729 741.99525228142738 10.698329374194143
leaf_count=16 28 27 2982 43
internal_value=5.00156e-07 -0.000262553 0.000143689 -0.0209901
internal_weight=770.162 763.365 748.692 14.6737
internal_count=3096 3068 3009 59
is_linear=0
shrinkage=0.03


Tree=28
num_leaves=7
num_cat=0
split_feature=6 13 21 26 57 41
split_gain=6.57638 13.6542 13.1833 9.68404 10.054 7.77449
threshold=0.00070205105614954788 0.012786236906876665 0.00083199587636830126 -1.3052255715455539 0.00068456226760051206 1.0013666895806568
decision_type=2 2 2 2 2 2
left_child=3 -2 -3 5 -5 -1
right_child=1 2 -4 4 -6 -7
leaf_value=0.019481532050722197 0.019691447492815008 -0.013176775941390405 0.0097677908425799469 0.0018519791703348351 -0.0095818215577057799 -0.005326011616872922
leaf_weight=43.396787151694298 17.288544595241547 112.10932296514511 28.20828028023243 472.6138928681612 81.090681299567223 15.405865564942358
leaf_count=175 70 450 114 1900 325 62
internal_value=5.04274e-07 -0.0054647 -0.00856419 0.00140677 0.000177486 0.0129821
internal_weight=770.113 157.606 140.318 612.507 553.705 58.8027
internal_count=3096 634 564 2462 2225 237
is_linear=0
shrinkage=0.03


Tree=29
num_leaves=6
num_cat=0
split_feature=68 68 1 67 58
split_gain=6.46238 9.61184 11.6834 7.19842 5.64963
threshold=0.007942616224426791 0.0054068217941153308 0.0003925637240852487 -0.0034445027377749062 0.00088207683023296525
decision_type=2 2 2 2 2
left_child=1 3 -3 -1 -2
right_child=4 2 -4 -5 -6
leaf_value=0.014262549304675107 -0.00013786291195371089 0.040818084032272238 -0.01816898199666777 -0.00078707510782905074 -0.049340127603609459
leaf_weight=29.792953312397003 3.9767036586999875 10.691288203001021 4.2128363549709311 716.81969390809536 4.4514581859111786
leaf_count=120 16 43 17 2882 18
internal_value=5.24356e-07 0.000289669 0.0241447 -0.000186532 -0.0261248
internal_weight=769.945 761.517 14.9041 746.613 8.42816
internal_count=3096 3062 60 3002 34
is_linear=0
shrinkage=0.03


Tree=30
num_leaves=7
num_cat=0
split_feature=40 36 23 28 11 61
split_gain=6.43931 8.04825 7.92049 9.34813 8.39343 5.24881
threshold=12485.776703801155 2.5088609421075607e-06 -0.87423120533328935 0.00023249393621962874 0.8813181526303987 -0.00019186190756517515
decision_type=2 2 2 2 2 2
left_child=2 5 3 -1 -4 -2
right_child=1 -3 4 -5 -6 -7
leaf_value=0.013403283477767831 -0.0032174195059412828 0.0082320843658816312 -0.0024265997800250304 -0.00077973865852617227 0.0094243995708421478 -0.045124149612040684
leaf_weight=82.309272944927216 3.9588994979858407 7.1903157979249945 523.0789320319891 85.032689481973648 59.950870081782341 8.3916856646537781
leaf_count=333 16 29 2101 342 241 34
internal_value=5.1323e-07 -0.0170009 0.000443259 0.00619636 -0.001208 -0.0316912
internal_weight=769.913 19.5409 750.372 167.342 583.03 12.3506
internal_count=3096 79 3017 675 2342 50
is_linear=0
shrinkage=0.03


Tree=31
num_leaves=7
num_cat=0
split_feature=5 47 10 42 68 66
split_gain=6.39034 11.1508 9.39222 7.09213 6.28518 5.89924
threshold=0.0006059644580405229 -1.8091903430670844 -0.0019959806399041913 -3.9947951320912702 -0.00069496876877314022 -0.00045353189766255412
decision_type=2 2 2 2 2 2
left_child=1 -1 -3 5 -5 -2
right_child=3 2 -4 4 -6 -7
leaf_value=-0.043928004893723713 -0.0090389177751610487 0.028148605342350561 0.0017474742554470144 -0.011697591479961071 -0.0015946687300835074 0.0307253169281698
leaf_weight=4.7195317745208731 5.2254823893308631 12.435391813516615 489.56922453641891 83.446918949484825 165.00647953152657 9.3945139646530134
leaf_count=19 21 50 1969 336 663 38
internal_value=5.02742e-07 0.00196997 0.00240147 -0.00379302 -0.00498789 0.0165128
internal_weight=769.798 506.724 502.005 263.073 248.453 14.62
internal_count=3096 2038 2019 1058 999 59
is_linear=0
shrinkage=0.03


Tree=32
num_leaves=7
num_cat=0
split_feature=50 28 47 63 13 24
split_gain=6.38355 10.5819 7.24308 10.4148 7.4926 1.29162
threshold=13.257288836781214 0.0011275825018106833 0.029385986537077437 -0.0004147942872823926 0.0078827652062408039 0.41518183742075104
decision_type=2 2 2 2 2 2
left_child=2 5 3 -1 -4 -2
right_child=1 -3 4 -5 -6 -7
leaf_value=0.0068225412348239959 0.05189212895224788 -0.011666097726254243 -0.014021051906552453 -0.0050407842705961206 0.0043690982067974187 0.02839797264251465
leaf_weight=81.703807651996613 4.614157557487486 5.7042852491140357 21.399773478507996 360.29439325630665 292.11037208139896 3.8743214160203934
leaf_count=329 19 23 86 1448 1175 16
internal_value=5.03362e-07 0.0199337 -0.000373956 -0.00284784 0.00311381 0.0411689
internal_weight=769.701 14.1928 755.508 441.998 313.51 8.48848
internal_count=3096 58 3038 1777 1261 35
is_linear=0
shrinkage=0.03


Tree=33
num_leaves=7
num_cat=0
split_feature=6 26 10 67 60 42
split_gain=6.23003 12.7539 12.3212 8.87018 10.817 6.00795
threshold=0.0006379230634800426 1.8882429446997928 -0.0017543405578165242 -0.0035238347828495157 0.014949486469869169 1.6251548840532901
decision_type=2 2 2 2 2 2
left_child=1 2 -1 5 -5 -2
right_child=3 -3 -4 4 -6 -7
leaf_value=0.028862761498440213 0.036235450342594733 -0.025092896833173207 0.0017764885500411243 -0.0040365908171353208 -0.03436754686518468 -0.0023560813235232836
leaf_weight=15.582342624664305 7.9251822829246503 15.42379382252693 503.48414216935635 209.35176067054272 11.145571559667586 6.7000611871480942
leaf_count=63 32 62 2025 842 45 27
internal_value=5.5729e-07 0.00179078 0.00258962 -0.00406905 -0.00556974 0.018556
internal_weight=769.613 534.49 519.066 235.123 220.497 14.6252
internal_count=3096 2150 2088 946 887 59
is_linear=0
shrinkage=0.03


Tree=34
num_leaves=7
num_cat=0
split_feature=59 46 30 13 24 55
split_gain=6.18911 8.00735 6.84251 20.1758 12.3021 5.28683
threshold=0.45316903587037666 -1.056709340150537 0.37940952255126048 0.010757230473431712 -1.3670248524766146 -1.2993433014777505e-05
decision_type=2 2 2 2 2 2
left_child=1 -1 3 -2 -4 -3
right_child=2 5 4 -5 -6 -7
leaf_value=0.015892972447531743 0.015615844453922497 -0.057809730672229012 0.043773927690595404 -0.0010531331353675047 -0.0026317450713346981 -0.015042874346134445
leaf_weight=4.210732012987136 91.448983639478683 4.4756204187870017 5.2037426531314841 229.00129193067551 428.97855593264103 6.2126747071743003
leaf_count=17 368 18 21 921 1726 25
internal_value=5.72376e-07 -0.0191469 0.000378609 0.0037038 -0.00207557 -0.0329511
internal_weight=769.532 14.899 754.633 320.45 434.182 10.6883
internal_count=3096 60 3036 1289 1747 43
is_linear=0
shrinkage=0.03


Tree=35
num_leaves=7
num_cat=0
split_feature=50 28 40 23 23 23
split_gain=6.03654 10.034 6.95002 7.63441 6.89367 1.25025
threshold=13.257288836781214 0.0011275825018106833 12485.776703801155 0.22643868758953897 -0.87423120533328935 0.31740705014014975
decision_type=2 2 2 2 2 2
left_child=2 5 4 -4 -1 -2
right_child=1 -3 3 -5 -6 -7
leaf_value=0.0055170167595368271 0.050292134234356335 -0.011288249715172546 -0.034457608737179256 0.0040754893180216193 -0.00145596437916591 0.026961179050461231
leaf_weight=164.23296925425529 4.7914957702159864 5.707698553800582 11.021146818995478 7.9768363684415808 572.08629485964775 3.6356953680515289
leaf_count=663 20 23 45 32 2298 15
internal_value=5.88963e-07 0.0194248 -0.000362913 -0.0182784 9.93303e-05 0.0402266
internal_weight=769.452 14.1349 755.317 18.998 736.319 8.42719
internal_count=3096 58 3038 77 2961 35
is_linear=0
shrinkage=0.03


Tree=36
num_leaves=6
num_cat=0
split_feature=68 68 1 22 58
split_gain=5.87838 9.18976 10.981 6.68765 5.2816
threshold=0.007942616224426791 0.0054068217941153308 0.0003925637240852487 1.5482491784954242 0.00088207683023296525
decision_type=2 2 2 2 2
left_child=1 3 -3 -1 -2
right_child=4 2 -4 -5 -6
leaf_value=0.000483727061796338 0.00013464056830812075 0.039821978069182376 -0.017427904682075702 -0.0121748289380651 -0.04753451200713197
leaf_weight=706.36452159285545 3.9718465805053693 10.662131428718565 4.2043700814247122 39.671501755714417 4.4194798320531845
leaf_count=2842 16 43 17 160 18
internal_value=6.03988e-07 0.000275998 0.0236312 -0.000189409 -0.0249714
internal_weight=769.294 760.903 14.8665 746.036 8.39133
internal_count=3096 3062 60 3002 34
is_linear=0
shrinkage=0.03


Tree=37
num_leaves=6
num_cat=0
split_feature=59 46 35 22 1
split_gain=5.83943 7.50839 6.60043 6.6914 5.18406
threshold=0.45316903587037666 -1.056709340150537 -0.0018757311683171849 1.5482491784954242 0.00029898970387920448
decision_type=2 2 2 2 2
left_child=1 -1 -2 -4 -3
right_child=2 4 3 -5 -6
leaf_value=0.015337871068040477 0.030083549299447558 -0.013465663783459033 0.0008047156680018935 -0.011368176453375855 -0.055605742879891333
leaf_weight=4.2035947144031516 6.6677289605140677 5.9722805619239789 704.55602334439754 43.129633575677872 4.6911320686340332
leaf_count=17 27 24 2835 174 19
internal_value=5.85693e-07 -0.0186184 0.000367535 0.000102532 -0.0320043
internal_weight=769.22 14.867 754.353 747.686 10.6634
internal_count=3096 60 3036 3009 43
is_linear=0
shrinkage=0.03


Tree=38
num_leaves=6
num_cat=0
split_feature=28 21 15 47 49
split_gain=5.78428 14.4922 7.51894 5.77162 3.32203
threshold=-0.012789376946560556 0.0011548435736485245 -13.856944129946148 0.029385986537077437 0.00059265747868875694
decision_type=2 2 2 2 2
left_child=1 4 -2 -4 -1
right_child=2 -3 3 -5 -6
leaf_value=-0.020523806690323144 0.032626600663128023 0.025310914258839506 -0.0021125908958509409 0.003244428143242572 -0.054589361051193282
leaf_weight=4.9379029572010023 6.4471640139818183 4.6868882626295081 440.34449458122253 307.34102044999599 5.3873053789138794
leaf_count=20 26 19 1772 1237 22
internal_value=5.49226e-07 -0.0184388 0.000367611 8.94468e-05 -0.0382979
internal_weight=769.145 15.0121 754.133 747.686 10.3252
internal_count=3096 61 3035 3009 42
is_linear=0
shrinkage=0.03


Tree=39
num_leaves=7
num_cat=0
split_feature=10 21 28 13 25 55
split_gain=5.76782 11.6383 16.811 9.78151 8.71871 8.30017
threshold=0.00079025900822908373 0.00083199587636830126 -0.012789376946560556 0.031195943028111437 0.99611994506782298 -0.00030138383571430436
decision_type=2 2 2 2 2 2
left_child=1 2 -1 5 -3 -2
right_child=3 4 -4 -5 -6 -7
leaf_value=-0.038760544033320347 0.032632388627224146 0.036100375352762816 0.0014021675840383875 -0.034444911003761805 -0.0092796805943881917 -0.0040802526454759595
leaf_weight=9.5440989285707456 5.7183610498905173 14.513731360435488 544.65948829054832 9.3204432576894742 5.1668145507574073 180.1214786618948
leaf_count=39 23 59 2193 38 21 723
internal_value=5.13592e-07 0.00151559 0.000710514 -0.00445469 0.0241866 -0.00295059
internal_weight=769.044 573.884 554.204 195.16 19.6805 185.84
internal_count=3096 2312 2232 784 80 746
is_linear=0
shrinkage=0.03


end of trees

feature_importances:
Column_23=21
Column_28=18
Column_13=17
Column_40=16
Column_5=11
Column_6=10
Column_47=10
Column_50=10
Column_21=9
Column_66=8
Column_68=8
Column_10=7
Column_24=6
Column_42=6
Column_45=6
Column_57=5
Column_25=4
Column_26=4
Column_36=4
Column_59=4
Column_67=4
Column_1=3
Column_17=3
Column_19=3
Column_22=3
Column_46=3
Column_58=3
Column_60=3
Column_11=2
Column_35=2
Column_38=2
Column_55=2
Column_61=2
Column_63=2
Column_15=1
Column_16=1
Column_30=1
Column_41=1
Column_44=1
Column_49=1

parameters:
[boosting: gbdt]
[objective: binary]
[metric: auc]
[tree_learner: serial]
[device_type: cpu]
[data_sample_strategy: bagging]
[data: ]
[valid: ]
[num_iterations: 40]
[learning_rate: 0.03]
[num_leaves: 7]
[num_threads: 1]
[seed: 42]
[deterministic: 0]
[force_col_wise: 0]
[force_row_wise: 0]
[histogram_pool_size: -1]
[max_depth: 3]
[min_data_in_leaf: 15]
[min_sum_hessian_in_leaf: 0.001]
[bagging_fraction: 1]
[pos_bagging_fraction: 1]
[neg_bagging_fraction: 1]
[bagging_freq: 0]
[bagging_seed: 400]
[bagging_by_query: 0]
[feature_fraction: 1]
[feature_fraction_bynode: 1]
[feature_fraction_seed: 30056]
[extra_trees: 0]
[extra_seed: 12879]
[early_stopping_round: 0]
[early_stopping_min_delta: 0]
[first_metric_only: 0]
[max_delta_step: 0]
[lambda_l1: 0]
[lambda_l2: 0]
[linear_lambda: 0]
[min_gain_to_split: 0]
[drop_rate: 0.1]
[max_drop: 50]
[skip_drop: 0.5]
[xgboost_dart_mode: 0]
[uniform_drop: 0]
[drop_seed: 17869]
[top_rate: 0.2]
[other_rate: 0.1]
[min_data_per_group: 100]
[max_cat_threshold: 32]
[cat_l2: 10]
[cat_smooth: 10]
[max_cat_to_onehot: 4]
[top_k: 20]
[monotone_constraints: ]
[monotone_constraints_method: basic]
[monotone_penalty: 0]
[feature_contri: ]
[forcedsplits_filename: ]
[refit_decay_rate: 0.9]
[cegb_tradeoff: 1]
[cegb_penalty_split: 0]
[cegb_penalty_feature_lazy: ]
[cegb_penalty_feature_coupled: ]
[path_smooth: 0]
[interaction_constraints: ]
[verbosity: -1]
[saved_feature_importance_type: 0]
[use_quantized_grad: 0]
[num_grad_quant_bins: 4]
[quant_train_renew_leaf: 0]
[stochastic_rounding: 1]
[linear_tree: 0]
[max_bin: 255]
[max_bin_by_feature: ]
[min_data_in_bin: 3]
[bin_construct_sample_cnt: 200000]
[data_random_seed: 175]
[is_enable_sparse: 1]
[enable_bundle: 1]
[use_missing: 1]
[zero_as_missing: 0]
[feature_pre_filter: 1]
[pre_partition: 0]
[two_round: 0]
[header: 0]
[label_column: ]
[weight_column: ]
[group_column: ]
[ignore_column: ]
[categorical_feature: ]
[forcedbins_filename: ]
[precise_float_parser: 0]
[parser_config_file: ]
[objective_seed: 16083]
[num_class: 1]
[is_unbalance: 0]
[scale_pos_weight: 1]
[sigmoid: 1]
[boost_from_average: 1]
[reg_sqrt: 0]
[alpha: 0.9]
[fair_c: 1]
[poisson_max_delta_step: 0.7]
[tweedie_variance_power: 1.5]
[lambdarank_truncation_level: 30]
[lambdarank_norm: 1]
[label_gain: ]
[lambdarank_position_bias_regularization: 0]
[eval_at: ]
[multi_error_top_k: 1]
[auc_mu_weights: ]
[num_machines: 1]
[local_listen_port: 12400]
[time_out: 120]
[machine_list_filename: ]
[machines: ]
[gpu_platform_id: -1]
[gpu_device_id: -1]
[gpu_use_dp: 0]
[num_gpu: 1]

end of parameters

pandas_categorical:null
